<!--
    Stump-based 20x20 frontal eye detector.
    Created by Shameem Hameed (http://umich.edu/~shameem)

////////////////////////////////////////////////////////////////////////////////////////

  IMPORTANT: READ BEFORE DOWNLOADING, COPYING, INSTALLING OR USING.

  By downloading, copying, installing or using the software you agree to this license.
  If you do not agree to this license, do not download, install,
  copy or use the software.


                        Intel License Agreement
                For Open Source Computer Vision Library

 Copyright (C) 2000, Intel Corporation, all rights reserved.
 Third party copyrights are property of their respective owners.

 Redistribution and use in source and binary forms, with or without modification,
 are permitted provided that the following conditions are met:

   * Redistribution's of source code must retain the above copyright notice,
     this list of conditions and the following disclaimer.

   * Redistribution's in binary form must reproduce the above copyright notice,
     this list of conditions and the following disclaimer in the documentation
     and/or other materials provided with the distribution.

   * The name of Intel Corporation may not be used to endorse or promote products
     derived from this software without specific prior written permission.

 This software is provided by the copyright holders and contributors "as is" and
 any express or implied warranties, including, but not limited to, the implied
 warranties of merchantability and fitness for a particular purpose are disclaimed.
 In no event shall the Intel Corporation or contributors be liable for any direct,
 indirect, incidental, special, exemplary, or consequential damages
 (including, but not limited to, procurement of substitute goods or services;
 loss of use, data, or profits; or business interruption) however caused
 and on any theory of liability, whether in contract, strict liability,
 or tort (including negligence or otherwise) arising in any way out of
 the use of this software, even if advised of the possibility of such damage.
-->
<opencv_storage>
<cascade type_id="opencv-cascade-classifier"><stageType>BOOST</stageType>
  <featureType>HAAR</featureType>
  <height>20</height>
  <width>20</width>
  <stageParams>
    <maxWeakCount>93</maxWeakCount></stageParams>
  <featureParams>
    <maxCatCount>0</maxCatCount></featureParams>
  <stageNum>24</stageNum>
  <stages>
      <_>
      <maxWeakCount>6</maxWeakCount>
      <stageThreshold>-1.4562760591506958e+00</stageThreshold>
      <weakClassifiers>
        <_>
          <internalNodes>
            0 -1 0 1.2963959574699402e-01</internalNodes>
          <leafValues>
            -7.7304208278656006e-01 6.8350148200988770e-01</leafValues></_>
        <_>
          <internalNodes>
            0 -1 1 -4.6326808631420135e-02</internalNodes>
          <leafValues>
            5.7352751493453979e-01 -4.9097689986228943e-01</leafValues></_>
        <_>
          <internalNodes>
            0 -1 2 -1.6173090785741806e-02</internalNodes>
          <leafValues>
            6.0254341363906860e-01 -3.1610709428787231e-01</leafValues></_>
        <_>
          <internalNodes>
            0 -1 3 -4.5828841626644135e-02</internalNodes>
          <leafValues>
            6.4177548885345459e-01 -1.5545040369033813e-01</leafValues></_>
        <_>
          <internalNodes>
            0 -1 4 -5.3759619593620300e-02</internalNodes>
          <leafValues>
                      5.4219317436218262e-01 -2.0480829477310181e-01</leafValues></_>
        <_>
          <internalNodes>
            0 -1 5 3.4171190112829208e-02</internalNodes>
          <leafValues>
            -2.3388190567493439e-01 4.8410901427268982e-01</leafValues></_></weakClassifiers></_>
    <_>
      <maxWeakCount>12</maxWeakCount>
      <stageThreshold>-1.2550230026245117e+00</stageThreshold>
      <weakClassifiers>
        <_>
          <internalNodes>
            0 -1 6 -2.1727620065212250e-01</internalNodes>
          <leafValues>
            7.1098899841308594e-01 -5.9360730648040771e-01</leafValues></_>
        <_>
          <internalNodes>
            0 -1 7 1.2071969918906689e-02</internalNodes>
          <leafValues>
            -2.8240481019020081e-01 5.9013551473617554e-01</leafValues></_>
        <_>
          <internalNodes>
            0 -1 8 -1.7854139208793640e-02</internalNodes>
          <leafValues>
            5.3137522935867310e-01 -2.2758960723876953e-01</leafValues></_>
        <_>
          <internalNodes>
            0 -1 9 2.2333610802888870e-02</internalNodes>
          <leafValues>
            -1.7556099593639374e-01 6.3356137275695801e-01</leafValues></_>
        <_>
          <internalNodes>
            0 -1 10 -9.1420017182826996e-02</internalNodes>
          <leafValues>
            6.1563092470169067e-01 -1.6899530589580536e-01</leafValues></_>
        <_>
          <internalNodes>
            0 -1 11 2.8973650187253952e-02</internalNodes>
          <leafValues>
            -1.2250079959630966e-01 7.4401170015335083e-01</leafValues></_>
        <_>
          <internalNodes>
            0 -1 12 7.8203463926911354e-03</internalNodes>
          <leafValues>
            1.6974370181560516e-01 -6.5441650152206421e-01</leafValues></_>
        <_>
          <internalNodes>
            0 -1 13 2.0340489223599434e-02</internalNodes>
          <leafValues>
            -1.2556649744510651e-01 8.2710450887680054e-01</leafValues></_>
        <_>
          <internalNodes>
            0 -1 14 -1.1926149949431419e-02</internalNodes>
          <leafValues>
            3.8605681061744690e-01 -2.0992340147495270e-01</leafValues></_>
        <_>
          <internalNodes>
            0 -1 15 -9.7281101625412703e-04</internalNodes>
          <leafValues>
            -6.3761192560195923e-01 1.2952390313148499e-01</leafValues></_>
        <_>
          <internalNodes>
            0 -1 16 1.8322050891583785e-05</internalNodes>
          <leafValues>
            -3.4631478786468506e-01 2.2924269735813141e-01</leafValues></_>
        <_>
          <internalNodes>
            0 -1 17 -8.0854417756199837e-03</internalNodes>
          <leafValues>
            -6.3665801286697388e-01 1.3078659772872925e-01</leafValues></_></weakClassifiers></_>
    <_>
      <maxWeakCount>9</maxWeakCount>
      <stageThreshold>-1.3728189468383789e+00</stageThreshold>
      <weakClassifiers>
        <_>
          <internalNodes>
            0 -1 18 -1.1812269687652588e-01</internalNodes>
          <leafValues>
            6.7844521999359131e-01 -5.0045782327651978e-01</leafValues></_>
        <_>
          <internalNodes>
            0 -1 19 -3.4332759678363800e-02</internalNodes>
          <leafValues>
            6.7186361551284790e-01 -3.5744878649711609e-01</leafValues></_>
        <_>
          <internalNodes>
            0 -1 20 -2.1530799567699432e-02</internalNodes>
          <leafValues>
            7.2220700979232788e-01 -1.8192419409751892e-01</leafValues></_>
        <_>
          <internalNodes>
            0 -1 21 -2.1909970790147781e-02</internalNodes>
          <leafValues>
            6.6529387235641479e-01 -2.7510228753089905e-01</leafValues></_>
        <_>
          <internalNodes>
            0 -1 22 -2.8713539242744446e-02</internalNodes>
          <leafValues>
            6.9955700635910034e-01 -1.9615580141544342e-01</leafValues></_>
        <_>
          <internalNodes>
            0 -1 23 -1.1467480100691319e-02</internalNodes>
          <leafValues>
            5.9267348051071167e-01 -2.2097350656986237e-01</leafValues></_>
        <_>
          <internalNodes>
            0 -1 24 -2.2611169144511223e-02</internalNodes>
          <leafValues>
            3.4483069181442261e-01 -3.8379558920860291e-01</leafValues></_>
        <_>
          <internalNodes>
            0 -1 25 -1.9308089977130294e-03</internalNodes>
          <leafValues>
            -7.9445719718933105e-01 1.5628659725189209e-01</leafValues></_>
        <_>
          <internalNodes>
            0 -1 26 5.6419910833938047e-05</internalNodes>
          <leafValues>
            -3.0896010994911194e-01 3.5431089997291565e-01</leafValues></_></weakClassifiers></_>
    <_>
      <maxWeakCount>16</maxWeakCount>
      <stageThreshold>-1.2879480123519897e+00</stageThreshold>
      <weakClassifiers>
              <_>
          <internalNodes>
            0 -1 27 1.9886520504951477e-01</internalNodes>
          <leafValues>
            -5.2860701084136963e-01 3.5536721348762512e-01</leafValues></_>
        <_>
          <internalNodes>
            0 -1 28 -3.6008939146995544e-02</internalNodes>
          <leafValues>
            4.2109689116477966e-01 -3.9348980784416199e-01</leafValues></_>
        <_>
          <internalNodes>
            0 -1 29 -7.7569849789142609e-02</internalNodes>
          <leafValues>
            4.7991541028022766e-01 -2.5122168660163879e-01</leafValues></_>
        <_>
          <internalNodes>
            0 -1 30 8.2630853285081685e-05</internalNodes>
          <leafValues>
            -3.8475489616394043e-01 3.1849220395088196e-01</leafValues></_>
        <_>
          <internalNodes>
            0 -1 31 3.2773229759186506e-04</internalNodes>
          <leafValues>
            -2.6427319645881653e-01 3.2547241449356079e-01</leafValues></_>
        <_>
          <internalNodes>
            0 -1 32 -1.8574850633740425e-02</internalNodes>
          <leafValues>
            4.6736589074134827e-01 -1.5067270398139954e-01</leafValues></_>
        <_>
          <internalNodes>
            0 -1 33 -7.0008762122597545e-05</internalNodes>
          <leafValues>
            2.9313150048255920e-01 -2.5365099310874939e-01</leafValues></_>
        <_>
          <internalNodes>
            0 -1 34 -1.8552130088210106e-02</internalNodes>
          <leafValues>
            4.6273660659790039e-01 -1.3148050010204315e-01</leafValues></_>
        <_>
          <internalNodes>
            0 -1 35 -1.3030420057475567e-02</internalNodes>
          <leafValues>
            4.1627219319343567e-01 -1.7751489579677582e-01</leafValues></_>
        <_>
          <internalNodes>
            0 -1 36 6.5694141085259616e-05</internalNodes>
          <leafValues>
            -2.8035101294517517e-01 2.6680740714073181e-01</leafValues></_>
        <_>
          <internalNodes>
            0 -1 37 1.7005260451696813e-04</internalNodes>
          <leafValues>
            -2.7027249336242676e-01 2.3981650173664093e-01</leafValues></_>
        <_>
          <internalNodes>
            0 -1 38 -3.3129199873656034e-03</internalNodes>
          <leafValues>
            4.4411438703536987e-01 -1.4428889751434326e-01</leafValues></_>
        <_>
          <internalNodes>
            0 -1 39 1.7583490116521716e-03</internalNodes>
          <leafValues>
            -1.6126190125942230e-01 4.2940768599510193e-01</leafValues></_>
        <_>
          <internalNodes>
            0 -1 40 -2.5194749236106873e-02</internalNodes>
          <leafValues>
            4.0687298774719238e-01 -1.8202580511569977e-01</leafValues></_>
        <_>
          <internalNodes>
            0 -1 41 1.4031709870323539e-03</internalNodes>
          <leafValues>
            8.4759786725044250e-02 -8.0018568038940430e-01</leafValues></_>
        <_>
          <internalNodes>
            0 -1 42 -7.3991729877889156e-03</internalNodes>
          <leafValues>
            5.5766099691390991e-01 -1.1843159794807434e-01</leafValues></_></weakClassifiers></_>
    <_>